-1.463045001029968262e+00
-1.207739830017089844e+00
1.585328578948974609e+00
3.196451812982559204e-02
1.607172191143035889e-01
-1.507526159286499023e+00
2.708246186375617981e-02
9.955374896526336670e-02
-4.148795604705810547e-01
1.363423943519592285e+00
-8.409874439239501953e-01
5.329821109771728516e-01
-4.457280933856964111e-01
-4.716785550117492676e-01
-7.068283557891845703e-01
-3.918950855731964111e-01
-1.108645796775817871e-01
-6.608454585075378418e-01
6.583876013755798340e-01
2.423243671655654907e-01
4.363096952438354492e-01
1.568010747432708740e-01
3.673292398452758789e-01
-2.033990323543548584e-01
-1.104689717292785645e+00
-2.216478586196899414e+00
-6.059151887893676758e-01
7.966352105140686035e-01
3.739759325981140137e-01
1.131898522377014160e+00
-1.813854813575744629e+00
-1.776595234870910645e+00
9.603393077850341797e-01
-8.315700292587280273e-01
2.119885683059692383e-01
1.640791893005371094e+00
3.007920682430267334e-01
-1.024315237998962402e+00
-1.734605729579925537e-01
-2.173024177551269531e+00
7.781198620796203613e-01
6.104330420494079590e-01
-8.940933346748352051e-01
-9.445747137069702148e-01
-3.467310369014739990e-01
-1.197102069854736328e-01
4.829144477844238281e-02
-5.733432769775390625e-01
5.146158933639526367e-01
-1.400245726108551025e-01
