2.890843451023101807e-01
-1.495933055877685547e+00
-3.874545991420745850e-01
3.178577125072479248e-01
3.256648480892181396e-01
-9.311053156852722168e-02
8.023225069046020508e-01
-5.101032853126525879e-01
-1.068896204233169556e-01
9.419586062431335449e-01
8.076516389846801758e-01
-7.840302586555480957e-01
-1.391125798225402832e+00
-4.238120317459106445e-01
8.639765977859497070e-01
1.098268032073974609e+00
-7.816560864448547363e-01
3.123210668563842773e-01
-1.262602806091308594e+00
7.854213118553161621e-01
-1.259567260742187500e+00
4.033614099025726318e-01
-6.460164189338684082e-01
8.483548164367675781e-01
-1.266805171966552734e+00
4.420035779476165771e-01
9.872669577598571777e-01
-2.515754997730255127e-01
-3.903712034225463867e-01
1.934152483940124512e+00
6.476714611053466797e-01
5.620877742767333984e-01
-1.544635176658630371e+00
-8.053094148635864258e-01
-1.516679286956787109e+00
5.637696981430053711e-01
6.668760776519775391e-01
-2.447230666875839233e-01
-1.377745866775512695e+00
7.089565396308898926e-01
1.393559575080871582e-01
6.659601330757141113e-01
-1.173676967620849609e+00
-9.301503300666809082e-01
-7.902411818504333496e-01
7.506940364837646484e-01
-4.261964857578277588e-01
8.105658292770385742e-01
5.824147537350654602e-02
1.248693585395812988e+00
