-1.660748720169067383e+00
5.840485915541648865e-02
-1.738189309835433960e-01
1.255608350038528442e-02
-1.648279726505279541e-01
3.836178183555603027e-01
-8.543045520782470703e-01
6.522806286811828613e-01
1.642866730690002441e+00
-7.054463773965835571e-02
-9.188883304595947266e-01
-8.934482932090759277e-01
-9.824219346046447754e-01
4.088571965694427490e-01
-3.325895667076110840e-01
-1.241708517074584961e+00
1.017470583319664001e-01
-2.505254030227661133e+00
-9.825099706649780273e-01
5.410054326057434082e-01
-6.256343126296997070e-01
8.230905979871749878e-03
-2.812516391277313232e-01
9.566639065742492676e-01
-1.747003793716430664e+00
-1.743913292884826660e+00
-4.512337222695350647e-02
1.969861030578613281e+00
-8.311367034912109375e-01
-1.682563543319702148e+00
-5.040349811315536499e-02
-1.428995013236999512e+00
-1.253772258758544922e+00
-2.647725105285644531e+00
-2.260464429855346680e-02
1.083139181137084961e+00
-3.442728221416473389e-01
1.136079311370849609e+00
-1.728672981262207031e+00
1.025379657745361328e+00
3.759025335311889648e-01
1.288277953863143921e-01
-7.219637036323547363e-01
-2.319300413131713867e+00
-9.904164671897888184e-01
-8.633468151092529297e-01
-1.267128944396972656e+00
1.351592540740966797e-01
-1.080074548721313477e+00
-1.275735378265380859e+00
